digraph Tree {
node [shape=box, style="filled, rounded", color="black", fontname=helvetica] ;
edge [fontname=helvetica] ;
0 [label=<time &le; 73.5<br/>gini = 0.426<br/>samples = 179<br/>value = [124, 55]<br/>class = D>, fillcolor="#f1b991"] ;
1 [label=<age &le; 66.5<br/>gini = 0.335<br/>samples = 47<br/>value = [10, 37]<br/>class = E>, fillcolor="#6fb7ec"] ;
0 -> 1 [labeldistance=2.5, labelangle=45, headlabel="True"] ;
2 [label=<gini = 0.461<br/>samples = 25<br/>value = [9, 16]<br/>class = E>, fillcolor="#a8d4f4"] ;
1 -> 2 ;
3 [label=<gini = 0.087<br/>samples = 22<br/>value = [1, 21]<br/>class = E>, fillcolor="#42a2e6"] ;
1 -> 3 ;
4 [label=<serum_creatinine &le; 1.45<br/>gini = 0.236<br/>samples = 132<br/>value = [114, 18]<br/>class = D>, fillcolor="#e99558"] ;
0 -> 4 [labeldistance=2.5, labelangle=-45, headlabel="False"] ;
5 [label=<gini = 0.092<br/>samples = 104<br/>value = [99, 5]<br/>class = D>, fillcolor="#e68743"] ;
4 -> 5 ;
6 [label=<gini = 0.497<br/>samples = 28<br/>value = [15, 13]<br/>class = D>, fillcolor="#fceee5"] ;
4 -> 6 ;
}